{
  "layers": [
    5,
    5,
    5
  ],
  "dtype": "float64",
  "data_expectation": "first_smci",
  "model_expectation": "first_smci",
  "propagation": "double",
  "params": {
    "w1": [
      [
        0.7268769432951712,
        0.6528586262431669,
        0.4661739011227194,
        1.0959285596542456,
        0.39855463863218793
      ],
      [
        2.326978731116466,
        0.9704737771292434,
        -0.5754105307761805,
        0.06514842939324636,
        -0.10237358456901523
      ],
      [
        -0.5467816758010577,
        -0.4308795331532937,
        1.0634543107871925,
        1.3684376765886908,
        0.5131424767164493
      ],
      [
        0.2990108492659115,
        -0.5672207485833288,
        1.2057910245650965,
        0.048796558060521474,
        1.6140722072423994
      ],
      [
        -0.5410634415153402,
        -0.4893628300549799,
        0.41701986185818196,
        0.30078795186016016,
        0.15825849930558178
      ]
    ],
    "w2": [
      [
        -0.6488926459891449,
        0.4016269309103805,
        -1.0309003482953751,
        0.13603144439084996,
        -0.06627498657652461
      ],
      [
        -0.8033383537707606,
        -0.22736768105954938,
        -1.0901708838887558,
        -0.5825583255774216,
        0.5064201747730086
      ],
      [
        0.4808749143182523,
        -0.9970740936981817,
        0.2864282084305336,
        0.006484699622351255,
        0.47353337441267246
      ],
      [
        -0.29622635187864005,
        -0.21077970784981181,
        -0.3342168122541445,
        0.3307939704777142,
        0.42778671171774685
      ],
      [
        -0.26249187396630114,
        -1.04181648304571,
        -0.09579625227203412,
        0.8329016406008711,
        0.47415581929412504
      ]
    ]
  }
}