{
  "layers": [
    5,
    5,
    5
  ],
  "dtype": "float64",
  "data_expectation": "first_smci",
  "model_expectation": "first_smci",
  "propagation": "double",
  "params": {
    "w1": [
      [
        -0.1188085628193943,
        -0.5347863921915232,
        -0.22579220642203343,
        0.48265430329397313,
        0.11793531495880667
      ],
      [
        0.1371380961012474,
        -0.7408378334197997,
        0.4996654576911392,
        -0.5625997472569879,
        0.7768682570839934
      ],
      [
        -0.4737488452635148,
        -0.14348308587680061,
        0.14081567758629576,
        -0.4463848228434983,
        -0.2575701824035111
      ],
      [
        -0.6630781511576176,
        -0.2293586152478168,
        0.16768098546321258,
        -0.06785241209776553,
        -0.6435235579849546
      ],
      [
        0.5397834086543072,
        -0.1467407463617946,
        0.7484095676705976,
        0.3146923239344306,
        -0.4494407302587114
      ]
    ],
    "w2": [
      [
        0.04117282802445396,
        0.7187187635165403,
        -0.6231377877119518,
        0.12888866778789962,
        -0.7503408906147171
      ],
      [
        0.6968019652945349,
        0.35766120618522196,
        -0.30720530177445526,
        0.44551152398277566,
        0.12951108321772828
      ],
      [
        -0.6074626836831898,
        -0.6043519862576742,
        0.7774741519882657,
        0.11743925614286373,
        -0.43596664575351024
      ],
      [
        0.1262538771824697,
        -0.2789431783582365,
        0.3328188151327902,
        0.4387269397840535,
        -0.7343167124567995
      ],
      [
        -0.6451776837105778,
        0.5408984403928827,
        -0.20458212339375792,
        -0.7730307925867786,
        -0.26274749400327574
      ]
    ]
  }
}